{"0.weight": [[5.9302802085876465, -2.057570457458496, 0.03229720517992973, 0.09755558520555496, 0.18177850544452667, -1.6114273071289062], [-1.8683934211730957, 5.00242280960083, 0.01678524911403656, -0.12289512157440186, 0.09276949614286423, -1.7352864742279053], [-0.9750567674636841, 0.0655081570148468, 1.1879608631134033, 1.150987982749939, 1.4120945930480957, 2.0744128227233887], [-0.02225060574710369, -0.1634087860584259, -0.004924654960632324, -0.19771699607372284, -0.3685270845890045, -0.3856866955757141], [0.03527827933430672, -0.16969628632068634, 0.19103726744651794, 0.032785721123218536, 0.1479882150888443, -0.24696235358715057], [2.8273468017578125, 1.407135009765625, 0.10831302404403687, -0.00420771911740303, 0.2556820511817932, -0.2013421654701233], [2.976148843765259, 1.5263464450836182, 0.09163840115070343, -0.022474363446235657, 0.3381941020488739, -0.619686484336853], [1.1221530437469482, 1.02821946144104, -0.019964318722486496, -0.22635695338249207, -0.3941996395587921, -0.23838166892528534], [-0.2264520227909088, -0.15480807423591614, -0.2232830971479416, 0.1384536474943161, 0.016435785219073296, -0.022808389738202095], [2.868194580078125, 1.4872217178344727, 0.2893248498439789, 0.1552971601486206, 0.18005594611167908, -0.44693467020988464], [1.445382833480835, -0.07083410024642944, 0.0342324860394001, -0.05843455344438553, -0.012541678734123707, -0.4769701659679413], [-0.21491274237632751, -0.006900399923324585, -0.022019565105438232, -0.0012721121311187744, -0.2880253195762634, 0.30484193563461304], [1.9190722703933716, -0.0612645223736763, 0.04808253049850464, -0.07326145470142365, -0.03312363848090172, -0.49924442172050476], [2.186171531677246, 0.9335653185844421, 0.15804360806941986, 0.057109344750642776, 0.19099734723567963, -0.6484018564224243], [-2.9796030521392822, 5.519582748413086, 0.043274544179439545, 0.4517318308353424, 0.1950882077217102, -2.494805335998535], [-0.1531132161617279, -0.5363219976425171, -0.22469377517700195, -0.2918303906917572, 0.04144701734185219, 0.08525814116001129]], "0.bias": [0.6785511374473572, -0.33700379729270935, 2.0634355545043945, -0.022646550089120865, -0.5224220156669617, -0.7948406934738159, -0.4189368784427643, -0.06878191977739334, -0.21251817047595978, -0.6247796416282654, 0.14450424909591675, -0.39873355627059937, 0.044978272169828415, -0.11300882697105408, 0.3151240050792694, -0.2815191447734833], "2.weight": [[-5.902453422546387, -4.838235855102539, 1.5789541006088257, 0.03259001299738884, -0.09387388825416565, -1.5741519927978516, -2.42917799949646, -0.3929238021373749, -0.0496431365609169, -2.4909918308258057, -0.9547858834266663, -0.08415502309799194, -0.8255347609519958, -1.7671607732772827, -5.230305194854736, 0.02224387228488922]], "2.bias": [0.6432623863220215]}